svm_type c_svc
kernel_type linear
nr_class 3
total_sv 4
rho -1.0325957012464051 -1.0014794064806831 -0.12929543167984214
label 2 0 1
nr_sv 2 1 1
SV
0 0.00080659190960721567 1:-0.036833721 
0.0013993524436083625 0 1:0.61614338 
-0.0013993524436083625 0.00025678328706186805 1:38.421334 
-0.00080659190960721567 -0.00025678328706186805 1:-49.832101 
